{
  "W1": [
    [
      -0.3183028254195279,
      -0.28290823520831215,
      -0.6087240605873946,
      -0.9040686843856736,
      -0.6096378473645135,
      -0.4669789097174221,
      0.08578535359449559,
      -0.22178206778780538,
      0.01656007431038162,
      -0.36458571560280373,
      0.07170744680529066,
      0.017187850869895136,
      -0.1580336171778678,
      -0.3790469564983338,
      -0.27776869177780455,
      -0.17190815766999915,
      -0.08797412798047106,
      0.08090859388200902,
      0.049367664847880584,
      -1.3044369376984637,
      -0.15115331747166175,
      -0.01963221288965735,
      -0.1887864439403035,
      -0.04597400436564318,
      -0.11688868799202735,
      -0.16996188801598222,
      -0.009484932578828396,
      0.03232206085847884,
      -0.05663784615029915,
      0.07641255929432318,
      -0.05050756430257445,
      0.09894192990216666
    ],
    [
      -0.22020559746621166,
      -0.06160493313972717,
      -0.24156963391873254,
      -0.4431935262977592,
      -0.1911321709451655,
      -0.2112982339494541,
      0.01218371698561786,
      -0.04029627210097607,
      -0.08075854008416128,
      -0.15349461971145123,
      0.07785796824346071,
      -0.03923960142577234,
      -0.07785174901933378,
      -0.08991293035748411,
      -0.17769315301581326,
      -0.03933819208620963,
      -0.11829712149683749,
      0.06970289602378014,
      0.04733184784912568,
      -0.5772024925562097,
      -0.18875526677080626,
      -0.13734724561422787,
      -0.1120792445773749,
      0.04201698979316668,
      -0.11788209653670445,
      -0.00830111010207574,
      0.018291251814414405,
      0.014322528413254059,
      0.010358583977153875,
      -0.014962742454204082,
      0.10765978245002698,
      0.06153397565583662
    ],
    [
      -0.20267963421285165,
      -0.20514037776238056,
      -0.3431584426689819,
      -0.5361193712094616,
      -0.3399268799695943,
      -0.31722729627655455,
      -0.08235855549778141,
      -0.17485797350881152,
      0.023111419167616866,
      -0.20287783834028103,
      -0.004870420185558949,
      -0.07297378540285646,
      0.01806682368868364,
      -0.1861093942454376,
      -0.08383889616209546,
      0.02953305803747038,
      -0.01740577130750189,
      0.06323109337372705,
      0.00572862431840091,
      -0.8568547752227316,
      0.04258726754105706,
      -0.1606454445356851,
      -0.09468887277315559,
      0.015848296724597248,
      0.001254989778408772,
      -0.008464795392066453,
      0.071659485073332,
      0.007657403920967398,
      -0.08580462979905643,
      0.026595643270852776,
      0.09762884551704934,
      0.0874497637459695
    ],
    [
      -0.2623938573769732,
      -0.3148392868797394,
      -0.47211682335869726,
      -0.7083553418997133,
      -0.4697341579172656,
      -0.29251732151742776,
      -0.06035853327777179,
      -0.12109559752362162,
      -0.05627078090210588,
      -0.3728035264724353,
      0.04339984728345877,
      -0.022724101479238534,
      0.22342856340028164,
      -0.4078293770173936,
      -0.3026728635186866,
      0.039349443079873196,
      -0.23270509470353046,
      0.02002377005895722,
      0.0805329559585835,
      -1.1044363367826247,
      0.1305836845806302,
      -0.29894846358538285,
      -0.18813782107064853,
      -0.030484556226609907,
      -0.05251447566378421,
      -0.0775769854293833,
      -0.019213631398537562,
      0.08339317709269709,
      -0.18860406752029726,
      -0.06598715522933862,
      0.11638338633537501,
      -0.1532594076675589
    ],
    [
      -0.0853338987345443,
      -0.07400239161611019,
      0.025160477828517477,
      0.03453532430337475,
      -0.1285524497807442,
      -0.03728207249097054,
      -0.22506116562878029,
      -0.051301944277858245,
      -0.04541063903607188,
      0.014385351366768627,
      -0.059521795817278025,
      -0.05473146108801959,
      -0.11866073633757045,
      -0.11204871213557105,
      -0.08925596718832757,
      0.11710767819493795,
      -0.05941496127958073,
      -0.046207530889650704,
      0.016085274534779315,
      0.008408179160166979,
      0.12759965249879035,
      -0.26687135132807377,
      0.014958567900853821,
      0.060652736127728854,
      -0.16869496908418405,
      0.05562551015229301,
      0.02703531970362389,
      -0.03950459980700255,
      -0.041322709685114006,
      0.001397068557129288,
      -0.1009341599006561,
      -0.03826921580796736
    ],
    [
      -0.14670190487835832,
      -0.1353206548412236,
      -0.2187692807067025,
      -0.33528275319878337,
      -0.2611018457772881,
      -0.18410284413227124,
      0.17099684809540672,
      -0.14633639262644677,
      0.005906191895430201,
      -0.24986547510172152,
      0.05204306784594217,
      -0.015816727702776458,
      -0.23405390023999012,
      -0.19843585737586616,
      -0.16300293846538794,
      0.08626302216690548,
      -0.09652944130482623,
      -0.028136836287428725,
      -0.02232209173286348,
      -0.43765488949196507,
      0.014567575726386,
      0.10495871660156347,
      -0.0646029522786623,
      -0.030972383869740983,
      -0.0650546745843689,
      0.01249461753369175,
      -0.0844512069564178,
      -0.03986495941784322,
      -0.09508615521792657,
      -0.03510030538705352,
      -0.0234512081684122,
      -0.02373824144130965
    ],
    [
      -0.0592664429011531,
      -0.09965867550668331,
      -0.22852769010950588,
      -0.33877595191693427,
      -0.17507806953519583,
      -0.17682383740000054,
      0.025072933666555636,
      -0.1599165686863689,
      -0.014470987035170978,
      -0.18246421410306257,
      -0.0497294137306977,
      -0.007976240305649774,
      0.14603429258740602,
      -0.13063519660737452,
      -0.06683781270378886,
      0.07392244459586265,
      -0.06902427716724596,
      -0.031568185047631384,
      -0.013650116913956184,
      -0.4219562442982147,
      0.19572825260350268,
      0.05106875883552041,
      -0.13732853045049503,
      0.06643920509680126,
      0.03504396124300033,
      -0.13404431672796605,
      0.02630552619041243,
      0.07316836602139196,
      -0.06356297049582763,
      0.010900947028879239,
      -0.12071082040577855,
      -0.06347957260621988
    ],
    [
      -0.18390458661098574,
      -0.28183521061845446,
      -0.3012464426214466,
      -0.5043156150776362,
      -0.423318878240974,
      -0.326344069982592,
      0.25208383150957137,
      -0.05574273157723737,
      -0.04564760983903417,
      -0.15385881304798443,
      -0.07016575861149445,
      0.05293600019678882,
      -0.01744112627044285,
      -0.3247937275882432,
      -0.20970388377619728,
      -0.01859000326802735,
      -0.05387678464514381,
      0.045319828464523294,
      -0.06132056891001958,
      -0.827272231596873,
      0.10177059697465758,
      -0.05011084302911317,
      -0.09305370146778666,
      -0.07124244447291321,
      -0.17683562633359085,
      -0.1585589625844127,
      0.03191813183082439,
      0.008047989679781537,
      -0.013531288358559521,
      0.06724094491104392,
      0.09043150926743314,
      -0.13401426814823597
    ]
  ],
  "b1": [
    4.668023839580446,
    3.832921222531588,
    7.378860564805038,
    10.58122899967218,
    7.405108895580217,
    5.459140239824258,
    0.23320234446527427,
    2.5074862551898107,
    -0.20699339735877587,
    4.719705182177023,
    -0.2120005849664071,
    -0.2477320007491301,
    0.24342153605586797,
    5.121300434669964,
    3.5648656149466924,
    0.5170117326212795,
    2.038466714245187,
    -0.2621123937633895,
    -0.18253183543436638,
    16.908104895862845,
    0.4180462921765161,
    0.413296988753121,
    3.2131325791869307,
    0.9157877960161798,
    0.7748330726565847,
    0.20257037258408916,
    -0.2924081328320925,
    -0.21463588543128648,
    1.5759664227354573,
    -0.29410506955898247,
    0.7270850294253821,
    0.06654120605732425
  ],
  "W2": [
    1.6315316983553174,
    1.3672668443183762,
    2.622151764358497,
    3.773657080990271,
    2.6188782860824986,
    1.9324840193646526,
    0.1875808769470514,
    0.8872792089956896,
    -0.02375872984759466,
    1.6956431554844391,
    -0.08369009829874482,
    -0.04858784796049433,
    0.20807201915139617,
    1.8203906605106914,
    1.2693785982568055,
    0.18361443056348398,
    0.7260727615873157,
    -0.03837061236603456,
    0.013994973539386472,
    5.996089930352801,
    0.20711571934657486,
    0.24864123618630501,
    1.1273914738747317,
    0.3227290707319994,
    0.2742793603001893,
    0.1521158821145822,
    -0.011765701394229248,
    -0.01938136732456822,
    0.5659985082841019,
    -0.02728503044488451,
    0.22942076735157857,
    0.11102983987410908
  ],
  "b2": 9.301451754409316
}